{"features": ["000", "50", "analyst", "and", "apply", "as", "background", "bi", "by", "capgemini", "careers", "click", "communication", "cv", "daily", "data", "day", "degree", "developer", "don", "drill", "earn", "earning", "effort", "engineer", "excel", "executive", "experience", "firm", "for", "freshers", "from", "get", "guaranteed", "have", "here", "hire", "hiring", "home", "hour", "hours", "hr", "hybrid", "in", "include", "infosys", "intern", "is", "javascript", "job", "join", "just", "knowledge", "left", "location", "looking", "make", "marketing", "media", "mode", "money", "month", "must", "needed", "no", "now", "of", "on", "online", "org", "page", "per", "power", "pune", "python", "qualified", "react", "required", "requirements", "resume", "sending", "seo", "simple", "social", "software", "sourcing", "spots", "sql", "start", "talent", "tcs", "the", "this", "to", "up", "week", "wipro", "with", "work", "your"], "weights": [-0.8134266465432828, -0.23462255066976714, 0.2845152777460609, 0.27427965484028244, 0.19273466549129073, 0.22923362257950758, 0.29380906660360906, 0.2696061273047083, -0.22697263255663458, 0.3093807726596532, 0.22923362257950758, -0.24478174319782253, 0.17134881073084984, 0.16310445751803962, -0.3209687315155623, 0.14261809844386372, -0.5038067895168691, -0.13779069209870254, 0.27762910555637504, -0.177106760615067, -0.1428495120618953, -0.4738380349734112, -0.3515083228948665, -0.11885816958922325, 0.27397407903523047, 0.2696061273047083, 0.3288403907802261, -0.05809521711708834, 0.16310445751803962, 0.5573333594946878, 0.3443954407700279, -0.6519799030271088, -0.3596058035759499, -0.26167111076566146, 0.3443954407700279, -0.1337694858172691, -0.177106760615067, 0.3212249276357014, -0.34375358764127034, -0.3552376424663741, -0.13236215997118775, 0.417932089868949, 0.22264190886192545, 0.3846300880610363, 0.27568930248544804, 0.26883997694605, 0.26418289012033996, 0.39249966094470845, 0.2213200917828478, -0.22282886218291986, 0.22923362257950758, -0.49795152711743723, 0.3443954407700279, -0.25939928974659654, 0.29380906660360906, 0.4579722063258139, -0.398540780039949, 0.26418289012033996, 0.35818801421338825, 0.27568930248544804, -0.23264013671146275, -0.24956470010301915, 0.3443954407700279, -0.22278544884704446, -0.771672254596447, 0.07640668243316467, 0.3443954407700279, 0.2818248704282799, -0.32215366321018923, 0.16310445751803962, 0.22923362257950758, -0.35071761053497336, 0.2696061273047083, 0.17286792608838314, 0.2846788896022458, 0.29380906660360906, 0.4294174972839935, 0.015729743693583875, 0.27568930248544804, 0.021189484313584157, 0.16310445751803962, 0.35818801421338825, -0.2633996640624553, 0.35818801421338825, 0.27397407903523047, 0.17134881073084984, -0.25939928974659654, 0.2846788896022458, -0.38427592163440727, 0.16310445751803962, 0.21951816152084372, 0.22923362257950758, -0.2322308380124788, 0.12428892121759103, -0.3496384202116348, -0.24672896133240949, 0.17056898933543485, 0.08036348337604979, -0.021179946914488577, 0.0490039914940157], "intercept": 0.08482037003239369}